digraph Tree {
node [shape=box, style="filled, rounded", color="black", fontname="helvetica"] ;
edge [fontname="helvetica"] ;
0 [label="sepal length (cm) <= 5.45\ngini = 0.66\nsamples = 94\nvalue = [39, 51, 60]\nclass = virginica", fillcolor="#f4edfd"] ;
1 [label="petal length (cm) <= 2.45\ngini = 0.26\nsamples = 30\nvalue = [35, 4, 2]\nclass = setosa", fillcolor="#e99559"] ;
0 -> 1 [labeldistance=2.5, labelangle=45, headlabel="True"] ;
2 [label="gini = 0.0\nsamples = 25\nvalue = [35, 0, 0]\nclass = setosa", fillcolor="#e58139"] ;
1 -> 2 ;
3 [label="sepal length (cm) <= 5.0\ngini = 0.44\nsamples = 5\nvalue = [0, 4, 2]\nclass = versicolor", fillcolor="#9cf2c0"] ;
1 -> 3 ;
4 [label="petal width (cm) <= 1.35\ngini = 0.44\nsamples = 2\nvalue = [0, 1, 2]\nclass = virginica", fillcolor="#c09cf2"] ;
3 -> 4 ;
5 [label="gini = 0.0\nsamples = 1\nvalue = [0, 1, 0]\nclass = versicolor", fillcolor="#39e581"] ;
4 -> 5 ;
6 [label="gini = 0.0\nsamples = 1\nvalue = [0, 0, 2]\nclass = virginica", fillcolor="#8139e5"] ;
4 -> 6 ;
7 [label="gini = 0.0\nsamples = 3\nvalue = [0, 3, 0]\nclass = versicolor", fillcolor="#39e581"] ;
3 -> 7 ;
8 [label="petal width (cm) <= 1.75\ngini = 0.53\nsamples = 64\nvalue = [4, 47, 58]\nclass = virginica", fillcolor="#e9dcfa"] ;
0 -> 8 [labeldistance=2.5, labelangle=-45, headlabel="False"] ;
9 [label="sepal width (cm) <= 3.5\ngini = 0.33\nsamples = 32\nvalue = [4, 46, 7]\nclass = versicolor", fillcolor="#65eb9d"] ;
8 -> 9 ;
10 [label="petal width (cm) <= 1.45\ngini = 0.23\nsamples = 29\nvalue = [0, 46, 7]\nclass = versicolor", fillcolor="#57e994"] ;
9 -> 10 ;
11 [label="gini = 0.0\nsamples = 18\nvalue = [0, 29, 0]\nclass = versicolor", fillcolor="#39e581"] ;
10 -> 11 ;
12 [label="sepal width (cm) <= 2.85\ngini = 0.41\nsamples = 11\nvalue = [0, 17, 7]\nclass = versicolor", fillcolor="#8bf0b5"] ;
10 -> 12 ;
13 [label="sepal width (cm) <= 2.75\ngini = 0.48\nsamples = 4\nvalue = [0, 9, 6]\nclass = versicolor", fillcolor="#bdf6d5"] ;
12 -> 13 ;
14 [label="sepal width (cm) <= 2.45\ngini = 0.3\nsamples = 3\nvalue = [0, 9, 2]\nclass = versicolor", fillcolor="#65eb9d"] ;
13 -> 14 ;
15 [label="sepal length (cm) <= 6.1\ngini = 0.44\nsamples = 2\nvalue = [0, 4, 2]\nclass = versicolor", fillcolor="#9cf2c0"] ;
14 -> 15 ;
16 [label="gini = 0.0\nsamples = 1\nvalue = [0, 0, 2]\nclass = virginica", fillcolor="#8139e5"] ;
15 -> 16 ;
17 [label="gini = 0.0\nsamples = 1\nvalue = [0, 4, 0]\nclass = versicolor", fillcolor="#39e581"] ;
15 -> 17 ;
18 [label="gini = 0.0\nsamples = 1\nvalue = [0, 5, 0]\nclass = versicolor", fillcolor="#39e581"] ;
14 -> 18 ;
19 [label="gini = 0.0\nsamples = 1\nvalue = [0, 0, 4]\nclass = virginica", fillcolor="#8139e5"] ;
13 -> 19 ;
20 [label="petal length (cm) <= 5.4\ngini = 0.2\nsamples = 7\nvalue = [0, 8, 1]\nclass = versicolor", fillcolor="#52e891"] ;
12 -> 20 ;
21 [label="gini = 0.0\nsamples = 6\nvalue = [0, 8, 0]\nclass = versicolor", fillcolor="#39e581"] ;
20 -> 21 ;
22 [label="gini = 0.0\nsamples = 1\nvalue = [0, 0, 1]\nclass = virginica", fillcolor="#8139e5"] ;
20 -> 22 ;
23 [label="gini = 0.0\nsamples = 3\nvalue = [4, 0, 0]\nclass = setosa", fillcolor="#e58139"] ;
9 -> 23 ;
24 [label="petal length (cm) <= 4.85\ngini = 0.04\nsamples = 32\nvalue = [0, 1, 51]\nclass = virginica", fillcolor="#833de6"] ;
8 -> 24 ;
25 [label="gini = 0.0\nsamples = 1\nvalue = [0, 1, 0]\nclass = versicolor", fillcolor="#39e581"] ;
24 -> 25 ;
26 [label="gini = 0.0\nsamples = 31\nvalue = [0, 0, 51]\nclass = virginica", fillcolor="#8139e5"] ;
24 -> 26 ;
}